{"learner":{"attributes":{"best_iteration":"29","best_score":"0.43581466039380756"},"feature_names":[],"feature_types":[],"gradient_booster":{"model":{"gbtree_model_param":{"num_parallel_tree":"1","num_trees":"30"},"iteration_indptr":[0,1,2,3,4,5,6,7,8,9,10,11,12,13,14,15,16,17,18,19,20,21,22,23,24,25,26,27,28,29,30],"tree_info":[0,0,0,0,0,0,0,0,0,0,0,0,0,0,0,0,0,0,0,0,0,0,0,0,0,0,0,0,0,0],"trees":[{"base_weights":[-9.917458E-2,-7.651101E-1,8.607532E-1,-9.444003E-1,2.659822E-1,3.4312055E-1,1.0968604E0,-6.415609E-1,-3.0757746E-1,-1.4301977E-1,6.747722E-1,6.481004E-1,-2.6007295E-1,5.9806985E-1,1.8203755E-1],"categories":[],"categories_nodes":[],"categories_segments":[],"categories_sizes":[],"default_left":[0,0,0,0,0,0,0,0,0,0,0,0,0,0,0],"id":0,"left_children":[1,3,5,7,9,11,13,-1,-1,-1,-1,-1,-1,-1,-1],"loss_changes":[1.2594669E2,2.1740898E1,9.492279E0,1.0278862E1,1.1152324E1,2.2682272E1,3.565628E0,0E0,0E0,0E0,0E0,0E0,0E0,0E0,0E0],"parents":[2147483647,0,0,1,1,2,2,3,3,4,4,5,5,6,6],"right_children":[2,4,6,8,10,12,14,-1,-1,-1,-1,-1,-1,-1,-1],"split_conditions":[1.1971173E0,9.738277E-1,3.4632944E-2,3.4632944E-2,6.97941E-1,6.9758916E-1,1.2589478E0,-6.415609E-1,-3.0757746E-1,-1.4301977E-1,6.747722E-1,6.481004E-1,-2.6007295E-1,5.9806985E-1,1.8203755E-1],"split_indices":[3,0,14,14,10,16,0,0,0,0,0,0,0,0,0],"split_type":[0,0,0,0,0,0,0,0,0,0,0,0,0,0,0],"sum_hessian":[1.9499239E2,1.152455E2,7.974689E1,9.824616E1,1.6999336E1,2.5748995E1,5.399789E1,4.6998165E1,5.1247997E1,1.1749541E1,5.249795E0,1.1999532E1,1.3749463E1,4.6998165E1,6.999727E0],"tree_param":{"num_deleted":"0","num_feature":"22","num_nodes":"15","size_leaf_vector":"1"}},{"base_weights":[1.1302657E-1,5.380025E-1,-1.3187706E-1,1.0920405E-1,1.0343143E0,-2.2483292E-1,8.842572E-1,1.8993957E-1,-3.9503813E-1,2.83216E-2,6.397554E-1,8.36332E-2,-2.1423948E-1,7.788656E-2,6.053267E-1],"categories":[],"categories_nodes":[],"categories_segments":[],"categories_sizes":[],"default_left":[0,0,0,0,0,0,0,0,0,0,0,0,0,0,0],"id":1,"left_children":[1,3,5,7,9,11,13,-1,-1,-1,-1,-1,-1,-1,-1],"loss_changes":[1.9463596E1,1.4426136E1,1.1440039E1,9.493696E0,7.490177E0,8.8418045E0,2.2313218E0,0E0,0E0,0E0,0E0,0E0,0E0,0E0,0E0],"parents":[2147483647,0,0,1,1,2,2,3,3,4,4,5,5,6,6],"right_children":[2,4,6,8,10,12,14,-1,-1,-1,-1,-1,-1,-1,-1],"split_conditions":[7.1069753E-1,-2.409265E-2,2.478479E0,2.478479E0,2.1930648E-1,4.8432015E-2,1.4780777E0,1.8993957E-1,-3.9503813E-1,2.83216E-2,6.397554E-1,8.36332E-2,-2.1423948E-1,7.788656E-2,6.053267E-1],"split_indices":[12,0,2,2,9,17,6,0,0,0,0,0,0,0,0],"split_type":[0,0,0,0,0,0,0,0,0,0,0,0,0,0,0],"sum_hessian":[1.8532776E2,6.7317085E1,1.18010666E2,3.6769432E1,3.0547653E1,1.0883334E2,9.177327E0,2.8706589E1,8.062844E0,6.371924E0,2.417573E1,3.7264008E1,7.1569336E1,3.296691E0,5.8806357E0],"tree_param":{"num_deleted":"0","num_feature":"22","num_nodes":"15","size_leaf_vector":"1"}},{"base_weights":[7.811955E-2,-1.1908524E0,3.002495E-1,-2.634744E-1,-1.434984E0,1.3485395E0,-1.4401112E-1,-5.103379E-1,2.8831866E-1,-4.5350146E-1,-8.130642E-1,7.66565E-1,3.6076155E-1,3.819478E-2,-2.787794E-1],"categories":[],"categories_nodes":[],"categories_segments":[],"categories_sizes":[],"default_left":[0,0,0,0,0,0,0,0,0,0,0,0,0,0,0],"id":2,"left_children":[1,3,5,7,9,11,13,-1,-1,-1,-1,-1,-1,-1,-1],"loss_changes":[5.357267E1,6.0348167E0,7.538996E1,5.1226807E0,7.6529694E-1,4.4674835E0,1.0461241E1,0E0,0E0,0E0,0E0,0E0,0E0,0E0,0E0],"parents":[2147483647,0,0,1,1,2,2,3,3,4,4,5,5,6,6],"right_children":[2,4,6,8,10,12,14,-1,-1,-1,-1,-1,-1,-1,-1],"split_conditions":[-1.0350555E0,-5.593282E-1,7.1556693E-1,1.1701393E0,-3.1847775E-2,1.2879333E0,1.2879333E0,-5.103379E-1,2.8831866E-1,-4.5350146E-1,-8.130642E-1,7.66565E-1,3.6076155E-1,3.819478E-2,-2.787794E-1],"split_indices":[4,16,4,14,19,8,8,0,0,0,0,0,0,0,0],"split_type":[0,0,0,0,0,0,0,0,0,0,0,0,0,0,0],"sum_hessian":[1.8778867E2,2.7325268E1,1.604634E2,6.127621E0,2.1197647E1,4.715638E1,1.13307014E2,3.1097987E0,3.0178223E0,7.1614213E0,1.4036226E1,3.5314766E1,1.1841615E1,7.444614E1,3.886087E1],"tree_param":{"num_deleted":"0","num_feature":"22","num_nodes":"15","size_leaf_vector":"1"}},{"base_weights":[-6.00791E-2,-1.0380969E0,1.0251229E-1,-1.202494E0,1.0934728E-1,8.222516E-1,-1.4147489E-1,-3.5285172E-1,-6.5269417E-1,5.07074E-1,-4.3837026E-1,2.7147773E-1,5.804741E-1,-1.597679E-1,4.181328E-1],"categories":[],"categories_nodes":[],"categories_segments":[],"categories_sizes":[],"default_left":[0,0,0,0,0,0,0,0,0,0,0,0,0,0,0],"id":3,"left_children":[1,3,5,7,9,11,13,-1,-1,-1,-1,-1,-1,-1,-1],"loss_changes":[2.7564924E1,4.791664E0,2.6276834E1,1.8760872E-1,4.469204E0,2.9512825E0,1.978522E1,0E0,0E0,0E0,0E0,0E0,0E0,0E0,0E0],"parents":[2147483647,0,0,1,1,2,2,3,3,4,4,5,5,6,6],"right_children":[2,4,6,8,10,12,14,-1,-1,-1,-1,-1,-1,-1,-1],"split_conditions":[-1.0350555E0,1.8163298E0,7.1556693E-1,-5.593282E-1,6.9758916E-1,1.4780777E0,2.4381232E0,-3.5285172E-1,-6.5269417E-1,5.07074E-1,-4.3837026E-1,2.7147773E-1,5.804741E-1,-1.597679E-1,4.181328E-1],"split_indices":[4,15,4,16,16,6,21,0,0,0,0,0,0,0,0],"split_type":[0,0,0,0,0,0,0,0,0,0,0,0,0,0,0],"sum_hessian":[1.7167625E2,2.3704506E1,1.4797176E2,2.0691944E1,3.0125616E0,3.686206E1,1.11109695E2,4.8987074E0,1.5793237E1,1.5561943E0,1.4563673E0,2.1629225E1,1.5232836E1,9.456179E1,1.6547901E1],"tree_param":{"num_deleted":"0","num_feature":"22","num_nodes":"15","size_leaf_vector":"1"}},{"base_weights":[-9.974855E-2,-4.221183E-1,3.94553E-1,-6.449992E-1,3.9452355E-2,-5.892543E-1,5.2427804E-1,6.1453015E-2,-3.8657898E-1,-5.4925585E-1,1.5118027E-1,3.3929926E-1,-6.747004E-1,1.3330151E-1,5.161731E-1],"categories":[],"categories_nodes":[],"categories_segments":[],"categories_sizes":[],"default_left":[0,0,0,0,0,0,0,0,0,0,0,0,0,0,0],"id":4,"left_children":[1,3,5,7,9,11,13,-1,-1,-1,-1,-1,-1,-1,-1],"loss_changes":[2.5453796E1,9.956379E0,8.369488E0,6.5073376E0,1.0018713E1,8.460633E0,7.0992594E0,0E0,0E0,0E0,0E0,0E0,0E0,0E0,0E0],"parents":[2147483647,0,0,1,1,2,2,3,3,4,4,5,5,6,6],"right_children":[2,4,6,8,10,12,14,-1,-1,-1,-1,-1,-1,-1,-1],"split_conditions":[1.1971173E0,6.97941E-1,-1.0220131E0,4.2431372E-1,-1.0220131E0,-1.3071332E0,1.4057847E0,6.1453015E-2,-3.8657898E-1,-5.4925585E-1,1.5118027E-1,3.3929926E-1,-6.747004E-1,1.3330151E-1,5.161731E-1],"split_indices":[3,10,0,1,0,0,11,0,0,0,0,0,0,0,0],"split_type":[0,0,0,0,0,0,0,0,0,0,0,0,0,0,0],"sum_hessian":[1.576921E2,9.55337E1,6.2158394E1,6.4156654E1,3.1377043E1,6.828693E0,5.5329704E1,9.18181E0,5.4974846E1,5.292187E0,2.6084856E1,2.599781E0,4.228912E0,3.772274E1,1.7606962E1],"tree_param":{"num_deleted":"0","num_feature":"22","num_nodes":"15","size_leaf_vector":"1"}},{"base_weights":[-1.2773773E-2,-7.40654E-1,9.442058E-2,-5.2751714E-1,-5.516783E-1,3.7415951E-1,-2.0250933E-1,-3.2554147E-1,-3.7980855E-2,4.6956235E-1,9.423541E-2,-3.0271226E-1,8.23274E-2],"categories":[],"categories_nodes":[],"categories_segments":[],"categories_sizes":[],"default_left":[0,0,0,0,0,0,0,0,0,0,0,0,0],"id":5,"left_children":[1,3,5,-1,7,9,11,-1,-1,-1,-1,-1,-1],"loss_changes":[1.1508997E1,5.427418E-1,1.0763958E1,0E0,6.0882616E-1,6.8105936E0,9.4298315E0,0E0,0E0,0E0,0E0,0E0,0E0],"parents":[2147483647,0,0,1,1,2,2,4,4,5,5,6,6],"right_children":[2,4,6,-1,8,10,12,-1,-1,-1,-1,-1,-1],"split_conditions":[-1.0350555E0,7.1069753E-1,9.5368814E-1,-5.2751714E-1,2.1946054E0,7.1556693E-1,-3.1847775E-2,-3.2554147E-1,-3.7980855E-2,4.6956235E-1,9.423541E-2,-3.0271226E-1,8.23274E-2],"split_indices":[4,12,20,0,18,4,19,0,0,0,0,0,0],"split_type":[0,0,0,0,0,0,0,0,0,0,0,0,0],"sum_hessian":[1.4560834E2,1.793245E1,1.2767589E2,5.0118365E0,1.2920612E1,6.560708E1,6.20688E1,1.0382479E1,2.5381336E0,1.5225468E1,5.0381615E1,2.9284227E1,3.2784576E1],"tree_param":{"num_deleted":"0","num_feature":"22","num_nodes":"13","size_leaf_vector":"1"}},{"base_weights":[8.872599E-2,2.5160939E-2,9.7853285E-1,1.3528559E-1,-3.628726E-1,6.465828E-1,2.4151364E-1,-9.9444166E-2,1.660138E-1,9.472751E-2,-3.8265654E-1,-2.6957968E-1,5.144393E-1],"categories":[],"categories_nodes":[],"categories_segments":[],"categories_sizes":[],"default_left":[0,0,0,0,0,0,0,0,0,0,0,0,0],"id":6,"left_children":[1,3,5,7,9,-1,11,-1,-1,-1,-1,-1,-1],"loss_changes":[8.139478E0,5.8497534E0,1.913249E0,7.0657E0,6.875566E0,0E0,3.0755239E0,0E0,0E0,0E0,0E0,0E0,0E0],"parents":[2147483647,0,0,1,1,2,2,3,3,4,4,6,6],"right_children":[2,4,6,8,10,-1,12,-1,-1,-1,-1,-1,-1],"split_conditions":[1.544068E0,1.5055615E0,1.2879333E0,3.141301E-2,9.5368814E-1,6.465828E-1,1.1971173E0,-9.9444166E-2,1.660138E-1,9.472751E-2,-3.8265654E-1,-2.6957968E-1,5.144393E-1],"split_indices":[0,9,8,8,20,0,3,0,0,0,0,0,0],"split_type":[0,0,0,0,0,0,0,0,0,0,0,0,0],"sum_hessian":[1.4334247E2,1.3474498E2,8.597488E0,1.0546513E2,2.9279844E1,5.4964647E0,3.1010232E0,3.9078274E1,6.6386856E1,1.2564707E1,1.671514E1,1.7154192E0,1.3856039E0],"tree_param":{"num_deleted":"0","num_feature":"22","num_nodes":"13","size_leaf_vector":"1"}},{"base_weights":[5.6496557E-2,-8.698105E-2,2.6777467E-1,-2.5766468E-1,1.0161096E-1,4.215223E-1,-7.7921234E-2,3.0881774E-1,-2.3078866E-1,5.8569956E-1,-8.818854E-2,2.969544E-1,7.8514375E-2,-1.6555594E-1,3.3227557E-1],"categories":[],"categories_nodes":[],"categories_segments":[],"categories_sizes":[],"default_left":[0,0,0,0,0,0,0,0,0,0,0,0,0,0,0],"id":7,"left_children":[1,3,5,7,9,11,13,-1,-1,-1,-1,-1,-1,-1,-1],"loss_changes":[4.1634655E0,2.668784E0,2.9817495E0,8.027106E0,1.2018463E1,1.664846E0,3.5894604E0,0E0,0E0,0E0,0E0,0E0,0E0,0E0,0E0],"parents":[2147483647,0,0,1,1,2,2,3,3,4,4,5,5,6,6],"right_children":[2,4,6,8,10,12,14,-1,-1,-1,-1,-1,-1,-1,-1],"split_conditions":[1.1971173E0,1.0663513E0,6.97941E-1,4.3073943E-1,4.2431372E-1,3.1579065E-1,6.166404E-1,3.0881774E-1,-2.3078866E-1,5.8569956E-1,-8.818854E-2,2.969544E-1,7.8514375E-2,-1.6555594E-1,3.3227557E-1],"split_indices":[3,19,10,7,1,13,15,0,0,0,0,0,0,0,0],"split_type":[0,0,0,0,0,0,0,0,0,0,0,0,0,0,0],"sum_hessian":[1.3557776E2,8.1094986E1,5.4482773E1,4.2376358E1,3.8718628E1,3.7559093E1,1.692368E1,7.623475E0,3.4752884E1,7.3231034E0,3.1395527E1,2.1984802E1,1.557429E1,1.303325E1,3.8904295E0],"tree_param":{"num_deleted":"0","num_feature":"22","num_nodes":"15","size_leaf_vector":"1"}},{"base_weights":[7.156832E-2,6.641773E-1,-2.257785E-2,2.2611208E-1,1.4054021E0,-5.0638884E-1,4.4757612E-2,-1.2772973E-1,4.2188454E-1,8.540395E-1,7.838874E-3,-4.3644205E-1,2.6817748E-1,3.6951908E-1,-1.4625737E-2],"categories":[],"categories_nodes":[],"categories_segments":[],"categories_sizes":[],"default_left":[0,0,0,0,0,0,0,0,0,0,0,0,0,0,0],"id":8,"left_children":[1,3,5,7,9,11,13,-1,-1,-1,-1,-1,-1,-1,-1],"loss_changes":[7.5394416E0,5.6962404E0,3.845484E0,4.032715E0,2.7865915E0,5.9780283E0,5.361719E0,0E0,0E0,0E0,0E0,0E0,0E0,0E0,0E0],"parents":[2147483647,0,0,1,1,2,2,3,3,4,4,5,5,6,6],"right_children":[2,4,6,8,10,12,14,-1,-1,-1,-1,-1,-1,-1,-1],"split_conditions":[-7.7237403E-1,1.1701393E0,-1.0350555E0,4.0358752E-1,3.141301E-2,1.551429E0,-1.597443E-1,-1.2772973E-1,4.2188454E-1,8.540395E-1,7.838874E-3,-4.3644205E-1,2.6817748E-1,3.6951908E-1,-1.4625737E-2],"split_indices":[5,14,4,0,8,5,4,0,0,0,0,0,0,0,0],"split_type":[0,0,0,0,0,0,0,0,0,0,0,0,0,0,0],"sum_hessian":[1.3386638E2,1.7521492E1,1.1634489E2,1.18331375E1,5.6883545E0,1.3417637E1,1.02927246E2,6.9785466E0,4.8545904E0,4.4829144E0,1.2054397E0,1.0048698E1,3.368939E0,9.049351E0,9.38779E1],"tree_param":{"num_deleted":"0","num_feature":"22","num_nodes":"15","size_leaf_vector":"1"}},{"base_weights":[-9.50517E-2,-1.2173461E-1,5.987825E-1,-1.28569435E-2,-4.049145E-1,-8.462345E-2,1.1275943E-1,2.8497124E-1,-3.0693126E-1],"categories":[],"categories_nodes":[],"categories_segments":[],"categories_sizes":[],"default_left":[0,0,0,0,0,0,0,0,0],"id":9,"left_children":[1,3,-1,5,7,-1,-1,-1,-1],"loss_changes":[4.6017427E0,3.925485E0,0E0,3.5094922E0,7.554856E0,0E0,0E0,0E0,0E0],"parents":[2147483647,0,0,1,1,3,3,4,4],"right_children":[2,4,-1,6,8,-1,-1,-1,-1],"split_conditions":[2.8148136E0,6.166404E-1,5.987825E-1,1.1971173E0,-1.597443E-1,-8.462345E-2,1.1275943E-1,2.8497124E-1,-3.0693126E-1],"split_indices":[1,15,0,3,4,0,0,0,0],"split_type":[0,0,0,0,0,0,0,0,0],"sum_hessian":[1.2819272E2,1.2648751E2,1.7052023E0,9.211595E1,3.4371555E1,5.5798515E1,3.631744E1,5.761822E0,2.8609734E1],"tree_param":{"num_deleted":"0","num_feature":"22","num_nodes":"9","size_leaf_vector":"1"}},{"base_weights":[4.810228E-3,1.1015923E-1,-4.988081E-1,2.3283817E-1,-1.6156247E-1,-9.881226E-1,-9.905082E-2,-5.38876E-2,1.7279874E-1,-3.1262863E-1,5.7724826E-2,1.2568502E-1,-6.4813906E-1,-3.7501958E-1,3.810895E-2],"categories":[],"categories_nodes":[],"categories_segments":[],"categories_sizes":[],"default_left":[0,0,0,0,0,0,0,0,0,0,0,0,0,0,0],"id":10,"left_children":[1,3,5,7,9,11,13,-1,-1,-1,-1,-1,-1,-1,-1],"loss_changes":[6.6595497E0,3.4966793E0,4.149967E0,2.798754E0,4.293998E0,4.0128508E0,1.5476568E0,0E0,0E0,0E0,0E0,0E0,0E0,0E0,0E0],"parents":[2147483647,0,0,1,1,2,2,3,3,4,4,5,5,6,6],"right_children":[2,4,6,8,10,12,14,-1,-1,-1,-1,-1,-1,-1,-1],"split_conditions":[2.1946054E0,1.2879333E0,3.1579065E-1,-5.593282E-1,3.4632944E-2,7.1556693E-1,4.3073943E-1,-5.38876E-2,1.7279874E-1,-3.1262863E-1,5.7724826E-2,1.2568502E-1,-6.4813906E-1,-3.7501958E-1,3.810895E-2],"split_indices":[18,8,13,16,14,4,7,0,0,0,0,0,0,0,0],"split_type":[0,0,0,0,0,0,0,0,0,0,0,0,0,0,0],"sum_hessian":[1.2348432E2,1.0276811E2,2.0716204E1,7.090052E1,3.1867594E1,8.652944E0,1.206326E1,1.7644817E1,5.3255703E1,1.14478E1,2.0419794E1,1.759598E0,6.893346E0,1.8632722E0,1.0199988E1],"tree_param":{"num_deleted":"0","num_feature":"22","num_nodes":"15","size_leaf_vector":"1"}},{"base_weights":[-3.51477E-2,-1.5833741E-1,2.4853545E-1,-5.3845716E-1,-5.817294E-2,-1.1614557E-1,5.857065E-1,-7.779239E-2,-6.290763E-1,-1.5482111E-1,1.5282336E-1,1.0467796E-1,-1.6149722E-1,3.6264718E-1,-3.4856647E-1],"categories":[],"categories_nodes":[],"categories_segments":[],"categories_sizes":[],"default_left":[0,0,0,0,0,0,0,0,0,0,0,0,0,0,0],"id":11,"left_children":[1,3,5,7,9,11,13,-1,-1,-1,-1,-1,-1,-1,-1],"loss_changes":[4.2682467E0,3.204321E0,4.6209116E0,4.654526E0,6.350678E0,1.3214695E0,3.980431E0,0E0,0E0,0E0,0E0,0E0,0E0,0E0,0E0],"parents":[2147483647,0,0,1,1,2,2,3,3,4,4,5,5,6,6],"right_children":[2,4,6,8,10,12,14,-1,-1,-1,-1,-1,-1,-1,-1],"split_conditions":[1.4057847E0,-5.593282E-1,6.97941E-1,1.1701393E0,1.1701393E0,1.2879333E0,2.4381232E0,-7.779239E-2,-6.290763E-1,-1.5482111E-1,1.5282336E-1,1.0467796E-1,-1.6149722E-1,3.6264718E-1,-3.4856647E-1],"split_indices":[11,16,10,14,14,8,21,0,0,0,0,0,0,0,0],"split_type":[0,0,0,0,0,0,0,0,0,0,0,0,0,0,0],"sum_hessian":[1.2000932E2,8.3981926E1,3.6027393E1,1.6602072E1,6.737986E1,1.7622543E1,1.840485E1,1.1630773E1,4.9712996E0,3.9929684E1,2.7450172E1,6.8426666E0,1.0779877E1,1.6990683E1,1.4141666E0],"tree_param":{"num_deleted":"0","num_feature":"22","num_nodes":"15","size_leaf_vector":"1"}},{"base_weights":[2.9061282E-2,-2.369763E-1,2.3785804E-1,-6.131362E-1,-1.3528912E-2,4.8039094E-1,-1.3874225E-1,-5.3944564E-1,-5.6073047E-2,7.3826104E-1,-6.322499E-2,3.1778428E-1,4.409814E-2,-3.1520447E-1,1.9115996E-1],"categories":[],"categories_nodes":[],"categories_segments":[],"categories_sizes":[],"default_left":[0,0,0,0,0,0,0,0,0,0,0,0,0,0,0],"id":12,"left_children":[1,3,5,7,9,11,13,-1,-1,-1,-1,-1,-1,-1,-1],"loss_changes":[6.736388E0,4.478488E0,6.2663155E0,4.5154996E0,5.9934387E0,2.4703045E0,7.251628E0,0E0,0E0,0E0,0E0,0E0,0E0,0E0,0E0],"parents":[2147483647,0,0,1,1,2,2,3,3,4,4,5,5,6,6],"right_children":[2,4,6,8,10,12,14,-1,-1,-1,-1,-1,-1,-1,-1],"split_conditions":[2.1930648E-1,4.8432015E-2,1.5055615E0,3.141301E-2,-5.593282E-1,1.3574054E0,-3.393767E-1,-5.3944564E-1,-5.6073047E-2,7.3826104E-1,-6.322499E-2,3.1778428E-1,4.409814E-2,-3.1520447E-1,1.9115996E-1],"split_indices":[9,17,9,8,16,17,13,0,0,0,0,0,0,0,0],"split_type":[0,0,0,0,0,0,0,0,0,0,0,0,0,0,0],"sum_hessian":[1.19257195E2,5.2381084E1,6.6876114E1,1.8870232E1,3.3510853E1,4.0511112E1,2.6365002E1,9.181217E0,9.689015E0,1.5099953E0,3.2000854E1,2.8581768E1,1.1929344E1,1.3457164E1,1.2907838E1],"tree_param":{"num_deleted":"0","num_feature":"22","num_nodes":"15","size_leaf_vector":"1"}},{"base_weights":[7.175625E-2,-1.9687654E-1,2.9384714E-1,-5.780214E-1,4.8807636E-2,6.537952E-1,9.880843E-2,-3.670327E-1,1.3649838E-1,3.6531666E-1,-1.592391E-1,-2.530318E-1,3.8328046E-1,-1.3374133E-1,1.0949918E-1],"categories":[],"categories_nodes":[],"categories_segments":[],"categories_sizes":[],"default_left":[0,0,0,0,0,0,0,0,0,0,0,0,0,0,0],"id":13,"left_children":[1,3,5,7,9,11,13,-1,-1,-1,-1,-1,-1,-1,-1],"loss_changes":[6.9823236E0,5.0030704E0,4.424025E0,2.9759426E0,8.5533085E0,3.303463E0,1.9360349E0,0E0,0E0,0E0,0E0,0E0,0E0,0E0,0E0],"parents":[2147483647,0,0,1,1,2,2,3,3,4,4,5,5,6,6],"right_children":[2,4,6,8,10,12,14,-1,-1,-1,-1,-1,-1,-1,-1],"split_conditions":[-1.6665271E-1,7.1069753E-1,7.1069753E-1,1.4057847E0,4.8432015E-2,-1.0350555E0,-2.768772E-1,-3.670327E-1,1.3649838E-1,3.6531666E-1,-1.592391E-1,-2.530318E-1,3.8328046E-1,-1.3374133E-1,1.0949918E-1],"split_indices":[0,12,12,11,17,4,20,0,0,0,0,0,0,0,0],"split_type":[0,0,0,0,0,0,0,0,0,0,0,0,0,0,0],"sum_hessian":[1.1506383E2,5.2126774E1,6.2937054E1,1.990078E1,3.2225994E1,2.129133E1,4.164572E1,1.6933292E1,2.9674869E0,1.0935734E1,2.129026E1,1.5775547E0,1.9713776E1,9.986214E0,3.165951E1],"tree_param":{"num_deleted":"0","num_feature":"22","num_nodes":"15","size_leaf_vector":"1"}},{"base_weights":[-1.0506884E-1,-1.9718187E-1,2.5122842E-1,-7.761966E-2,-3.0728486E-1,-3.944536E-1,5.203645E-1,3.001674E-2,-1.5198252E-1,-7.533802E-2,-3.8374823E-1,-5.6751156E-1,1.5861152E-1,5.2318256E-2,5.8763206E-1],"categories":[],"categories_nodes":[],"categories_segments":[],"categories_sizes":[],"default_left":[0,0,0,0,0,0,0,0,0,0,0,0,0,0,0],"id":14,"left_children":[1,3,5,7,9,11,13,-1,-1,-1,-1,-1,-1,-1,-1],"loss_changes":[3.7934685E0,1.1767535E0,4.3538876E0,1.4222231E0,3.2819967E0,4.361535E0,4.581977E0,0E0,0E0,0E0,0E0,0E0,0E0,0E0,0E0],"parents":[2147483647,0,0,1,1,2,2,3,3,4,4,5,5,6,6],"right_children":[2,4,6,8,10,12,14,-1,-1,-1,-1,-1,-1,-1,-1],"split_conditions":[8.312677E-1,3.1579065E-1,-2.768772E-1,-2.409265E-2,6.166404E-1,1.544068E0,3.8952747E-1,3.001674E-2,-1.5198252E-1,-7.533802E-2,-3.8374823E-1,-5.6751156E-1,1.5861152E-1,5.2318256E-2,5.8763206E-1],"split_indices":[0,13,20,0,15,0,5,0,0,0,0,0,0,0,0],"split_type":[0,0,0,0,0,0,0,0,0,0,0,0,0,0,0],"sum_hessian":[1.1307598E2,9.020261E1,2.2873375E1,4.406109E1,4.6141518E1,6.592276E0,1.6281097E1,2.785543E1,1.620566E1,3.541671E1,1.0724808E1,2.9390488E0,3.6532273E0,1.0668529E1,5.6125703E0],"tree_param":{"num_deleted":"0","num_feature":"22","num_nodes":"15","size_leaf_vector":"1"}},{"base_weights":[9.195895E-2,1.6718233E-1,-2.5353068E-1,2.1430041E-1,-6.866328E-2,3.6350054E-1,-3.8538745E-1,-8.077535E-2,1.5226589E-1,-2.766389E-1,3.4234884E-1,-3.4640837E-1,5.1864892E-2],"categories":[],"categories_nodes":[],"categories_segments":[],"categories_sizes":[],"default_left":[0,0,0,0,0,0,0,0,0,0,0,0,0],"id":15,"left_children":[1,3,5,7,9,-1,11,-1,-1,-1,-1,-1,-1],"loss_changes":[2.9719954E0,1.0501056E0,2.9374242E0,2.6910856E0,6.3196144E0,0E0,2.8942916E0,0E0,0E0,0E0,0E0,0E0,0E0],"parents":[2147483647,0,0,1,1,2,2,3,3,4,4,6,6],"right_children":[2,4,6,8,10,-1,12,-1,-1,-1,-1,-1,-1],"split_conditions":[2.1946054E0,1.6261253E0,4.2431372E-1,4.3073943E-1,3.8952747E-1,3.6350054E-1,9.70958E-1,-8.077535E-2,1.5226589E-1,-2.766389E-1,3.4234884E-1,-3.4640837E-1,5.1864892E-2],"split_indices":[18,13,1,7,5,0,13,0,0,0,0,0,0],"split_type":[0,0,0,0,0,0,0,0,0,0,0,0,0],"sum_hessian":[1.11725426E2,9.217277E1,1.9552656E1,7.6900635E1,1.5272131E1,1.7826556E0,1.777E1,1.4734584E1,6.2166054E1,9.455365E0,5.8167653E0,1.0655892E1,7.1141086E0],"tree_param":{"num_deleted":"0","num_feature":"22","num_nodes":"13","size_leaf_vector":"1"}},{"base_weights":[-5.6375086E-2,9.24624E-2,-3.7050116E-1,4.0489337E-1,-1.3188158E-1,4.4838566E-1,-5.0916535E-1,2.5476461E-2,2.868936E-1,1.0399245E-2,-5.784141E-1,3.4524494E-1,3.6726E-2,-4.3337038E-1,-9.7327754E-2],"categories":[],"categories_nodes":[],"categories_segments":[],"categories_sizes":[],"default_left":[0,0,0,0,0,0,0,0,0,0,0,0,0,0,0],"id":16,"left_children":[1,3,5,7,9,11,13,-1,-1,-1,-1,-1,-1,-1,-1],"loss_changes":[4.929967E0,5.089441E0,4.0735297E0,1.7805457E0,6.6864486E0,4.4268584E-1,3.1407948E0,0E0,0E0,0E0,0E0,0E0,0E0,0E0,0E0],"parents":[2147483647,0,0,1,1,2,2,3,3,4,4,5,5,6,6],"right_children":[2,4,6,8,10,12,14,-1,-1,-1,-1,-1,-1,-1,-1],"split_conditions":[1.2879333E0,-3.1847775E-2,-2.768772E-1,2.1930648E-1,1.5055615E0,-3.0921277E-1,-3.1847775E-2,2.5476461E-2,2.868936E-1,1.0399245E-2,-5.784141E-1,3.4524494E-1,3.6726E-2,-4.3337038E-1,-9.7327754E-2],"split_indices":[8,19,20,9,9,0,19,0,0,0,0,0,0,0,0],"split_type":[0,0,0,0,0,0,0,0,0,0,0,0,0,0,0],"sum_hessian":[1.03712685E2,7.084904E1,3.2863647E1,2.927485E1,4.157419E1,4.435576E0,2.8428072E1,9.877297E0,1.9397552E1,3.7036755E1,4.537433E0,2.183805E0,2.2517712E0,1.2481568E1,1.5946504E1],"tree_param":{"num_deleted":"0","num_feature":"22","num_nodes":"15","size_leaf_vector":"1"}},{"base_weights":[-1.8162708E-1,-4.7593513E-1,-1.04267634E-1,-4.51942E-2,-1.0549717E0,-3.269206E-1,7.184376E-2,-1.5947264E-1,2.6601815E-1,-2.13434E-1,-5.8550245E-1,2.6529026E-1,-3.6203882E-1,-1.4243689E-1,1.3598232E-1],"categories":[],"categories_nodes":[],"categories_segments":[],"categories_sizes":[],"default_left":[0,0,0,0,0,0,0,0,0,0,0,0,0,0,0],"id":17,"left_children":[1,3,5,7,9,11,13,-1,-1,-1,-1,-1,-1,-1,-1],"loss_changes":[2.4469833E0,5.575016E0,3.478552E0,2.3774958E0,1.9772625E-1,1.3698362E1,3.6481206E0,0E0,0E0,0E0,0E0,0E0,0E0,0E0,0E0],"parents":[2147483647,0,0,1,1,2,2,3,3,4,4,5,5,6,6],"right_children":[2,4,6,8,10,12,14,-1,-1,-1,-1,-1,-1,-1,-1],"split_conditions":[-5.593282E-1,1.1701393E0,3.4632944E-2,1.4057847E0,4.2431372E-1,3.141301E-2,3.141301E-2,-1.5947264E-1,2.6601815E-1,-2.13434E-1,-5.8550245E-1,2.6529026E-1,-3.6203882E-1,-1.4243689E-1,1.3598232E-1],"split_indices":[16,14,14,11,1,8,8,0,0,0,0,0,0,0,0],"split_type":[0,0,0,0,0,0,0,0,0,0,0,0,0,0,0],"sum_hessian":[1.08656624E2,2.1543558E1,8.711307E1,1.2971905E1,8.571652E0,3.809466E1,4.9018402E1,9.102506E0,3.8693995E0,2.0661485E0,6.5055037E0,1.1952372E1,2.6142292E1,1.7464407E1,3.1553995E1],"tree_param":{"num_deleted":"0","num_feature":"22","num_nodes":"15","size_leaf_vector":"1"}},{"base_weights":[4.370044E-2,-5.848308E-1,1.2850775E-1,1.4189766E-1,-7.307255E-1,7.87945E-1,5.5589013E-2,-4.593949E-1,-1.1329466E-1,2.5239405E-1,5.041376E-1,1.3769655E-1,-4.786917E-2],"categories":[],"categories_nodes":[],"categories_segments":[],"categories_sizes":[],"default_left":[0,0,0,0,0,0,0,0,0,0,0,0,0],"id":18,"left_children":[1,3,5,-1,7,9,11,-1,-1,-1,-1,-1,-1],"loss_changes":[5.9220123E0,1.882824E0,4.642979E0,0E0,8.915434E-1,9.175205E-2,2.9813707E0,0E0,0E0,0E0,0E0,0E0,0E0],"parents":[2147483647,0,0,1,1,2,2,4,4,5,5,6,6],"right_children":[2,4,6,-1,8,10,12,-1,-1,-1,-1,-1,-1],"split_conditions":[-1.0350555E0,-7.3689294E-1,-1.597443E-1,1.4189766E-1,1.4057847E0,-1.6665271E-1,6.9758916E-1,-4.593949E-1,-1.1329466E-1,2.5239405E-1,5.041376E-1,1.3769655E-1,-4.786917E-2],"split_indices":[4,0,4,0,11,0,16,0,0,0,0,0,0],"split_type":[0,0,0,0,0,0,0,0,0,0,0,0,0],"sum_hessian":[1.0868882E2,1.2220819E1,9.6467995E1,1.6215066E0,1.0599313E1,8.628724E0,8.783927E1,7.120544E0,3.4787686E0,5.216195E0,3.4125292E0,3.548182E1,5.2357452E1],"tree_param":{"num_deleted":"0","num_feature":"22","num_nodes":"13","size_leaf_vector":"1"}},{"base_weights":[6.538155E-2,-1.9864768E-2,5.944391E-1,-2.0364621E-1,1.795957E-1,8.735451E-1,1.6434169E-1,-3.10525E-1,-2.1902118E-2,-3.837398E-2,2.4683468E-1,5.306054E-1,2.1739528E-1,3.576075E-1,-4.8806954E-2],"categories":[],"categories_nodes":[],"categories_segments":[],"categories_sizes":[],"default_left":[0,0,0,0,0,0,0,0,0,0,0,0,0,0,0],"id":19,"left_children":[1,3,5,7,9,11,13,-1,-1,-1,-1,-1,-1,-1,-1],"loss_changes":[4.6238394E0,3.3004787E0,1.5638213E0,3.095852E0,3.5183206E0,2.2974157E-1,1.0552998E0,0E0,0E0,0E0,0E0,0E0,0E0,0E0,0E0],"parents":[2147483647,0,0,1,1,2,2,3,3,4,4,5,5,6,6],"right_children":[2,4,6,8,10,12,14,-1,-1,-1,-1,-1,-1,-1,-1],"split_conditions":[2.4381232E0,3.1579065E-1,1.1701393E0,3.141301E-2,-2.409265E-2,3.8952747E-1,4.2431372E-1,-3.10525E-1,-2.1902118E-2,-3.837398E-2,2.4683468E-1,5.306054E-1,2.1739528E-1,3.576075E-1,-4.8806954E-2],"split_indices":[21,13,14,8,0,5,1,0,0,0,0,0,0,0,0],"split_type":[0,0,0,0,0,0,0,0,0,0,0,0,0,0,0],"sum_hessian":[1.0126185E2,8.803874E1,1.3223109E1,4.580935E1,4.2229393E1,7.393897E0,5.8292117E0,1.1885836E1,3.3923515E1,2.36677E1,1.8561693E1,4.18513E0,3.2087672E0,1.3209854E0,4.5082264E0],"tree_param":{"num_deleted":"0","num_feature":"22","num_nodes":"15","size_leaf_vector":"1"}},{"base_weights":[3.607085E-2,7.337628E-1,-1.0041787E-2,-1.3833421E-1,9.7492987E-1,-8.569998E-2,1.585109E-1,6.787037E-1,2.8695159E-2,-7.197067E-2,2.9750553E-1,1.5318695E-1,-4.065311E-1],"categories":[],"categories_nodes":[],"categories_segments":[],"categories_sizes":[],"default_left":[0,0,0,0,0,0,0,0,0,0,0,0,0],"id":20,"left_children":[1,3,5,-1,7,9,11,-1,-1,-1,-1,-1,-1],"loss_changes":[3.3519578E0,1.843548E0,1.2696928E0,0E0,1.8294649E0,2.8066387E0,4.6834235E0,0E0,0E0,0E0,0E0,0E0,0E0],"parents":[2147483647,0,0,1,1,2,2,4,4,5,5,6,6],"right_children":[2,4,6,-1,8,10,12,-1,-1,-1,-1,-1,-1],"split_conditions":[-1.3071332E0,4.3073943E-1,1.4057847E0,-1.3833421E-1,2.5960883E-1,1.544068E0,1.544068E0,6.787037E-1,2.8695159E-2,-7.197067E-2,2.9750553E-1,1.5318695E-1,-4.065311E-1],"split_indices":[0,7,11,0,11,0,0,0,0,0,0,0,0],"split_type":[0,0,0,0,0,0,0,0,0,0,0,0,0],"sum_hessian":[1.029583E2,5.4584613E0,9.749984E1,1.023411E0,4.43505E0,6.763299E1,2.9866848E1,2.7918599E0,1.6431903E0,6.3028812E1,4.6041775E0,2.651605E1,3.3507967E0],"tree_param":{"num_deleted":"0","num_feature":"22","num_nodes":"13","size_leaf_vector":"1"}},{"base_weights":[6.618784E-2,4.690511E-1,-5.860738E-2,6.7815554E-1,-2.0681702E-1,-1.7989615E-1,1.12652875E-1,4.615044E-1,1.1504893E-2,3.257444E-1,-4.8421812E-1,-2.2555807E-1,-9.115645E-3,-3.75452E-2,2.64186E-1],"categories":[],"categories_nodes":[],"categories_segments":[],"categories_sizes":[],"default_left":[0,0,0,0,0,0,0,0,0,0,0,0,0,0,0],"id":21,"left_children":[1,3,5,7,9,11,13,-1,-1,-1,-1,-1,-1,-1,-1],"loss_changes":[5.047064E0,3.4931464E0,1.6221397E0,2.9227495E0,4.7962995E0,1.9881182E0,2.5830538E0,0E0,0E0,0E0,0E0,0E0,0E0,0E0,0E0],"parents":[2147483647,0,0,1,1,2,2,3,3,4,4,5,5,6,6],"right_children":[2,4,6,8,10,12,14,-1,-1,-1,-1,-1,-1,-1,-1],"split_conditions":[4.2431372E-1,1.551429E0,1.1701393E0,1.2879333E0,7.1556693E-1,-3.393767E-1,1.4780777E0,4.615044E-1,1.1504893E-2,3.257444E-1,-4.8421812E-1,-2.2555807E-1,-9.115645E-3,-3.75452E-2,2.64186E-1],"split_indices":[1,5,14,8,4,13,6,0,0,0,0,0,0,0,0],"split_type":[0,0,0,0,0,0,0,0,0,0,0,0,0,0,0],"sum_hessian":[9.884153E1,2.2724348E1,7.611718E1,1.7352373E1,5.371975E0,4.4530014E1,3.1587168E1,1.2333871E1,5.018503E0,2.593657E0,2.778318E0,1.596149E1,2.8568523E1,2.2324535E1,9.262631E0],"tree_param":{"num_deleted":"0","num_feature":"22","num_nodes":"15","size_leaf_vector":"1"}},{"base_weights":[8.2688846E-2,-5.945312E-1,1.5996203E-1,-2.1727192E-1,-5.146476E-1,1.78772E-1,-2.56656E-1,-2.8095827E-1,2.2273225E-1,6.1038673E-2,2.0546705E-1],"categories":[],"categories_nodes":[],"categories_segments":[],"categories_sizes":[],"default_left":[0,0,0,0,0,0,0,0,0,0,0],"id":22,"left_children":[1,3,5,7,-1,9,-1,-1,-1,-1,-1],"loss_changes":[5.460628E0,1.5334847E0,1.2672346E0,1.8499409E0,0E0,1.1480918E0,0E0,0E0,0E0,0E0,0E0],"parents":[2147483647,0,0,1,1,2,2,3,3,5,5],"right_children":[2,4,6,8,-1,10,-1,-1,-1,-1,-1],"split_conditions":[-1.0220131E0,1.3574054E0,2.114308E0,1.6261253E0,-5.146476E-1,8.312677E-1,-2.56656E-1,-2.8095827E-1,2.2273225E-1,6.1038673E-2,2.0546705E-1],"split_indices":[0,17,0,13,0,0,0,0,0,0,0],"split_type":[0,0,0,0,0,0,0,0,0,0,0],"sum_hessian":[1.0153065E2,9.712929E0,9.181772E1,6.0033603E0,3.7095685E0,9.003674E1,1.7809794E0,4.0495753E0,1.953785E0,7.359135E1,1.6445395E1],"tree_param":{"num_deleted":"0","num_feature":"22","num_nodes":"11","size_leaf_vector":"1"}},{"base_weights":[-4.603101E-2,1.0734715E0,-9.788107E-2,7.800712E-1,4.943618E-2,7.550291E-2,-1.7036636E-1,-7.841742E-2,1.742412E-1,7.780658E-2,-1.1073491E-1],"categories":[],"categories_nodes":[],"categories_segments":[],"categories_sizes":[],"default_left":[0,0,0,0,0,0,0,0,0,0,0],"id":23,"left_children":[1,3,5,-1,-1,7,9,-1,-1,-1,-1],"loss_changes":[5.793584E0,1.9429145E0,1.2015002E0,0E0,0E0,1.8670228E0,1.1506339E0,0E0,0E0,0E0,0E0],"parents":[2147483647,0,0,1,1,2,2,5,5,6,6],"right_children":[2,4,6,-1,-1,8,10,-1,-1,-1,-1],"split_conditions":[-1.3071332E0,9.70958E-1,-4.517728E-1,7.800712E-1,4.943618E-2,9.5368814E-1,-7.7237403E-1,-7.841742E-2,1.742412E-1,7.780658E-2,-1.1073491E-1],"split_indices":[0,13,0,0,0,20,5,0,0,0,0],"split_type":[0,0,0,0,0,0,0,0,0,0,0],"sum_hessian":[9.699957E1,3.4215252E0,9.357805E1,1.8812901E0,1.5402353E0,2.757569E1,6.600236E1,1.5126621E1,1.2449068E1,8.667691E0,5.733467E1],"tree_param":{"num_deleted":"0","num_feature":"22","num_nodes":"11","size_leaf_vector":"1"}},{"base_weights":[-5.2247737E-2,-2.8123215E-1,2.2350017E-2,-7.8973904E-2,-5.4556835E-1,4.479704E-1,-8.2034245E-2,-2.209075E-1,2.3455879E-1,-1.10245444E-1,-4.8523498E-1,-3.7526232E-3,3.4995142E-1,-2.4084888E-1,7.5685576E-2],"categories":[],"categories_nodes":[],"categories_segments":[],"categories_sizes":[],"default_left":[0,0,0,0,0,0,0,0,0,0,0,0,0,0,0],"id":24,"left_children":[1,3,5,7,9,11,13,-1,-1,-1,-1,-1,-1,-1,-1],"loss_changes":[1.780197E0,1.3251591E0,3.5579708E0,3.3230774E0,1.2949383E0,1.8141994E0,6.088995E0,0E0,0E0,0E0,0E0,0E0,0E0,0E0,0E0],"parents":[2147483647,0,0,1,1,2,2,3,3,4,4,5,5,6,6],"right_children":[2,4,6,8,10,12,14,-1,-1,-1,-1,-1,-1,-1,-1],"split_conditions":[-5.593282E-1,3.1579065E-1,6.9758916E-1,6.166404E-1,1.8163298E0,3.1579065E-1,3.4632944E-2,-2.209075E-1,2.3455879E-1,-1.10245444E-1,-4.8523498E-1,-3.7526232E-3,3.4995142E-1,-2.4084888E-1,7.5685576E-2],"split_indices":[16,13,16,15,15,13,14,0,0,0,0,0,0,0,0],"split_type":[0,0,0,0,0,0,0,0,0,0,0,0,0,0,0],"sum_hessian":[1.0284851E2,2.4591805E1,7.825671E1,1.4667585E1,9.924219E0,1.4764365E1,6.3492336E1,8.941886E0,5.7256994E0,6.483126E0,3.4410925E0,5.6036253E0,9.16074E0,2.3016706E1,4.047563E1],"tree_param":{"num_deleted":"0","num_feature":"22","num_nodes":"15","size_leaf_vector":"1"}},{"base_weights":[3.3148106E-2,-3.908732E-2,2.3423679E-1,6.732402E-2,-2.605584E-1,3.493112E-1,-4.4840243E-1,1.12992905E-1,-4.9988E-2,-4.1675624E-1,-4.3994244E-2,-7.452246E-4,4.7519088E-1,9.664303E-2,-4.479112E-1],"categories":[],"categories_nodes":[],"categories_segments":[],"categories_sizes":[],"default_left":[0,0,0,0,0,0,0,0,0,0,0,0,0,0,0],"id":25,"left_children":[1,3,5,7,9,11,13,-1,-1,-1,-1,-1,-1,-1,-1],"loss_changes":[1.4354209E0,1.7401991E0,2.2063382E0,1.3542598E0,2.2925339E0,4.8281193E0,1.37954E0,0E0,0E0,0E0,0E0,0E0,0E0,0E0,0E0],"parents":[2147483647,0,0,1,1,2,2,3,3,4,4,5,5,6,6],"right_children":[2,4,6,8,10,12,14,-1,-1,-1,-1,-1,-1,-1,-1],"split_conditions":[9.70958E-1,3.1579065E-1,2.4381232E0,-2.409265E-2,-7.3689294E-1,3.8952747E-1,-1.9142328E-1,1.12992905E-1,-4.9988E-2,-4.1675624E-1,-4.3994244E-2,-7.452246E-4,4.7519088E-1,9.664303E-2,-4.479112E-1],"split_indices":[13,13,21,0,0,5,5,0,0,0,0,0,0,0,0],"split_type":[0,0,0,0,0,0,0,0,0,0,0,0,0,0,0],"sum_hessian":[9.718891E1,7.209606E1,2.5092852E1,4.9168053E1,2.292801E1,2.1890928E1,3.2019227E0,2.5055483E1,2.411257E1,4.4207053E0,1.8507305E1,1.4453171E1,7.437757E0,1.5487329E0,1.6531898E0],"tree_param":{"num_deleted":"0","num_feature":"22","num_nodes":"15","size_leaf_vector":"1"}},{"base_weights":[-5.8942407E-2,1.2332509E-1,-2.5175065E-1,-2.8616026E-2,8.283356E-1,-4.3454918E-1,1.5383513E-1,-4.237353E-1,4.0358696E-2,5.0834656E-1,1.0221378E-1,1.9318104E-3,-2.7049655E-1,-2.2053313E-1,2.911705E-1],"categories":[],"categories_nodes":[],"categories_segments":[],"categories_sizes":[],"default_left":[0,0,0,0,0,0,0,0,0,0,0,0,0,0,0],"id":26,"left_children":[1,3,5,7,9,11,13,-1,-1,-1,-1,-1,-1,-1,-1],"loss_changes":[3.4401956E0,5.437415E0,3.586304E0,3.8773453E0,8.491287E-1,1.5413156E0,4.2046485E0,0E0,0E0,0E0,0E0,0E0,0E0,0E0,0E0],"parents":[2147483647,0,0,1,1,2,2,3,3,4,4,5,5,6,6],"right_children":[2,4,6,8,10,12,14,-1,-1,-1,-1,-1,-1,-1,-1],"split_conditions":[9.5368814E-1,1.5055615E0,1.4780777E0,-1.0350555E0,1.18467405E-1,4.2431372E-1,-3.1847775E-2,-4.237353E-1,4.0358696E-2,5.0834656E-1,1.0221378E-1,1.9318104E-3,-2.7049655E-1,-2.2053313E-1,2.911705E-1],"split_indices":[20,9,6,4,0,1,19,0,0,0,0,0,0,0,0],"split_type":[0,0,0,0,0,0,0,0,0,0,0,0,0,0,0],"sum_hessian":[9.6008804E1,4.953872E1,4.6470085E1,4.1544598E1,7.9941196E0,3.1983587E1,1.4486496E1,4.0983896E0,3.744621E1,5.656783E0,2.3373365E0,6.436625E0,2.5546963E1,6.053297E0,8.433199E0],"tree_param":{"num_deleted":"0","num_feature":"22","num_nodes":"15","size_leaf_vector":"1"}},{"base_weights":[1.2730105E-1,2.2894165E-1,9.79784E-3,3.1346726E-1,-3.20311E-2,2.2460014E-1,-1.6854867E-1,6.496412E-2,3.6567488E-1,1.1527806E-1,-3.0555558E-1,-4.489966E-2,4.5280418E-1,1.2910767E-1,-3.245867E-1],"categories":[],"categories_nodes":[],"categories_segments":[],"categories_sizes":[],"default_left":[0,0,0,0,0,0,0,0,0,0,0,0,0,0,0],"id":27,"left_children":[1,3,5,7,9,11,13,-1,-1,-1,-1,-1,-1,-1,-1],"loss_changes":[1.0927122E0,1.0934391E0,1.7068775E0,2.7574418E0,2.1059437E0,4.404671E0,5.1672144E0,0E0,0E0,0E0,0E0,0E0,0E0,0E0,0E0],"parents":[2147483647,0,0,1,1,2,2,3,3,4,4,5,5,6,6],"right_children":[2,4,6,8,10,12,14,-1,-1,-1,-1,-1,-1,-1,-1],"split_conditions":[3.1579065E-1,1.5055615E0,3.141301E-2,1.2879333E0,1.4780777E0,1.6261253E0,1.6261253E0,6.496412E-2,3.6567488E-1,1.1527806E-1,-3.0555558E-1,-4.489966E-2,4.5280418E-1,1.2910767E-1,-3.245867E-1],"split_indices":[13,9,8,8,6,13,13,0,0,0,0,0,0,0,0],"split_type":[0,0,0,0,0,0,0,0,0,0,0,0,0,0,0],"sum_hessian":[9.0681E1,4.8113926E1,4.2567074E1,3.6190994E1,1.1922932E1,1.9192314E1,2.337476E1,2.6057257E1,1.0133739E1,8.617249E0,3.3056834E0,1.37243595E1,5.4679546E0,1.2626227E1,1.0748531E1],"tree_param":{"num_deleted":"0","num_feature":"22","num_nodes":"15","size_leaf_vector":"1"}},{"base_weights":[-1.6983051E-3,8.1242755E-2,-2.3958306E-1,1.556682E-1,-1.889209E-1,-4.1970944E-1,2.6258004E-1,-4.236499E-3,1.9390322E-1,-2.2278862E-1,1.7855783E-1,1.969934E-1,-2.657066E-1,-5.5681437E-2,2.668441E-1],"categories":[],"categories_nodes":[],"categories_segments":[],"categories_sizes":[],"default_left":[0,0,0,0,0,0,0,0,0,0,0,0,0,0,0],"id":28,"left_children":[1,3,5,7,9,11,13,-1,-1,-1,-1,-1,-1,-1,-1],"loss_changes":[1.8114007E0,1.398466E0,2.2568893E0,2.0582323E0,2.2833793E0,1.831989E0,7.569839E-1,0E0,0E0,0E0,0E0,0E0,0E0,0E0,0E0],"parents":[2147483647,0,0,1,1,2,2,3,3,4,4,5,5,6,6],"right_children":[2,4,6,8,10,12,14,-1,-1,-1,-1,-1,-1,-1,-1],"split_conditions":[9.70958E-1,1.5055615E0,4.0358752E-1,2.1930648E-1,-3.393767E-1,-1.597443E-1,1.6261253E0,-4.236499E-3,1.9390322E-1,-2.2278862E-1,1.7855783E-1,1.969934E-1,-2.657066E-1,-5.5681437E-2,2.668441E-1],"split_indices":[13,9,0,9,13,4,13,0,0,0,0,0,0,0,0],"split_type":[0,0,0,0,0,0,0,0,0,0,0,0,0,0,0],"sum_hessian":[8.982102E1,6.708841E1,2.2732613E1,5.293071E1,1.41577E1,1.6851986E1,5.880626E0,3.157092E1,2.1359787E1,9.756011E0,4.4016886E0,1.7291414E0,1.5122845E1,2.7192125E0,3.1614137E0],"tree_param":{"num_deleted":"0","num_feature":"22","num_nodes":"15","size_leaf_vector":"1"}},{"base_weights":[-9.763384E-2,-5.2670933E-2,-8.664814E-1,-1.6857252E-1,2.3753688E-1,-5.685841E-1,1.7804299E-2,-4.793859E-2,-3.128459E-1,-7.9459645E-2,3.94578E-1],"categories":[],"categories_nodes":[],"categories_segments":[],"categories_sizes":[],"default_left":[0,0,0,0,0,0,0,0,0,0,0],"id":29,"left_children":[1,3,5,7,9,-1,-1,-1,-1,-1,-1],"loss_changes":[3.1694946E0,3.0312784E0,1.2794242E0,2.071255E0,5.766702E0,0E0,0E0,0E0,0E0,0E0,0E0],"parents":[2147483647,0,0,1,1,2,2,3,3,4,4],"right_children":[2,4,6,8,10,-1,-1,-1,-1,-1,-1],"split_conditions":[1.686628E0,9.70958E-1,2.6845484E0,2.1946054E0,6.97941E-1,-5.685841E-1,1.7804299E-2,-4.793859E-2,-3.128459E-1,-7.9459645E-2,3.94578E-1],"split_indices":[0,13,0,18,10,0,0,0,0,0,0],"split_type":[0,0,0,0,0,0,0,0,0,0,0],"sum_hessian":[9.200458E1,8.793081E1,4.073767E0,6.3135315E1,2.4795498E1,2.9330618E0,1.1407055E0,5.5516335E1,7.6189795E0,1.4840985E1,9.954513E0],"tree_param":{"num_deleted":"0","num_feature":"22","num_nodes":"11","size_leaf_vector":"1"}}]},"name":"gbtree"},"learner_model_param":{"base_score":"5.0312495E-1","boost_from_average":"1","num_class":"0","num_feature":"22","num_target":"1"},"objective":{"name":"binary:logistic","reg_loss_param":{"scale_pos_weight":"1"}}},"version":[2,1,3]}